digraph Tree {
node [shape=box, style="filled", color="black"] ;
graph [ranksep=equally, splines=polyline] ;
0 [label="Color intensity <= 3.82\ngini = 0.6448\nsamples = 158\nvalue = [39, 71, 48]\nclass = 2", fillcolor="#39e58135"] ;
1 [label="Proline <= 1002.5\ngini = 0.1172\nsamples = 64\nvalue = [4, 60, 0]\nclass = 2", fillcolor="#39e581ee"] ;
0 -> 1 [labeldistance=2.5, labelangle=45, headlabel="True"] ;
2 [label="Ash <= 3.07\ngini = 0.0624\nsamples = 62\nvalue = [2, 60, 0]\nclass = 2", fillcolor="#39e581f6"] ;
1 -> 2 ;
3 [label="OD280/OD315 of diluted wines <= 3.73\ngini = 0.0322\nsamples = 61\nvalue = [1, 60, 0]\nclass = 2", fillcolor="#39e581fb"] ;
2 -> 3 ;
4 [label="gini = 0.0\nsamples = 60\nvalue = [0, 60, 0]\nclass = 2", fillcolor="#39e581ff"] ;
3 -> 4 ;
5 [label="gini = 0.0\nsamples = 1\nvalue = [1, 0, 0]\nclass = 1", fillcolor="#e58139ff"] ;
3 -> 5 ;
6 [label="gini = 0.0\nsamples = 1\nvalue = [1, 0, 0]\nclass = 1", fillcolor="#e58139ff"] ;
2 -> 6 ;
7 [label="gini = 0.0\nsamples = 2\nvalue = [2, 0, 0]\nclass = 1", fillcolor="#e58139ff"] ;
1 -> 7 ;
8 [label="Flavanoids <= 1.58\ngini = 0.5869\nsamples = 94\nvalue = [35, 11, 48]\nclass = 3", fillcolor="#8139e538"] ;
0 -> 8 [labeldistance=2.5, labelangle=-45, headlabel="False"] ;
9 [label="Alcalinity of ash <= 17.15\ngini = 0.04\nsamples = 49\nvalue = [0, 1, 48]\nclass = 3", fillcolor="#8139e5fa"] ;
8 -> 9 ;
10 [label="gini = 0.0\nsamples = 1\nvalue = [0, 1, 0]\nclass = 2", fillcolor="#39e581ff"] ;
9 -> 10 ;
11 [label="gini = 0.0\nsamples = 48\nvalue = [0, 0, 48]\nclass = 3", fillcolor="#8139e5ff"] ;
9 -> 11 ;
12 [label="Proline <= 737.0\ngini = 0.3457\nsamples = 45\nvalue = [35, 10, 0]\nclass = 1", fillcolor="#e58139b6"] ;
8 -> 12 ;
13 [label="Alcohol <= 13.175\ngini = 0.1653\nsamples = 11\nvalue = [1, 10, 0]\nclass = 2", fillcolor="#39e581e6"] ;
12 -> 13 ;
14 [label="gini = 0.0\nsamples = 10\nvalue = [0, 10, 0]\nclass = 2", fillcolor="#39e581ff"] ;
13 -> 14 ;
15 [label="gini = 0.0\nsamples = 1\nvalue = [1, 0, 0]\nclass = 1", fillcolor="#e58139ff"] ;
13 -> 15 ;
16 [label="gini = 0.0\nsamples = 34\nvalue = [34, 0, 0]\nclass = 1", fillcolor="#e58139ff"] ;
12 -> 16 ;
{rank=same ; 0} ;
{rank=same ; 1; 8} ;
{rank=same ; 2; 9; 12} ;
{rank=same ; 3; 13} ;
{rank=same ; 4; 5; 6; 7; 10; 11; 14; 15; 16} ;
}