digraph Tree {
node [shape=box, style="filled", color="black"] ;
graph [ranksep=equally, splines=polyline] ;
0 [label="sex <= 0.5\ngini = 0.4829\nsamples = 1018\nvalue = [603, 415]\nclass = 0", fillcolor="#e5813950"] ;
1 [label="age <= 9.5\ngini = 0.3256\nsamples = 640\nvalue = [509, 131]\nclass = 0", fillcolor="#e58139bd"] ;
0 -> 1 [labeldistance=2.5, labelangle=45, headlabel="True"] ;
2 [label="sibsp <= 2.5\ngini = 0.4926\nsamples = 41\nvalue = [18, 23]\nclass = 1", fillcolor="#399de537"] ;
1 -> 2 ;
3 [label="gini = 0.2112\nsamples = 25\nvalue = [3, 22]\nclass = 1", fillcolor="#399de5dc"] ;
2 -> 3 ;
4 [label="gini = 0.1172\nsamples = 16\nvalue = [15, 1]\nclass = 0", fillcolor="#e58139ee"] ;
2 -> 4 ;
5 [label="pclass <= 1.5\ngini = 0.2956\nsamples = 599\nvalue = [491, 108]\nclass = 0", fillcolor="#e58139c7"] ;
1 -> 5 ;
6 [label="gini = 0.449\nsamples = 144\nvalue = [95, 49]\nclass = 0", fillcolor="#e581397b"] ;
5 -> 6 ;
7 [label="gini = 0.2257\nsamples = 455\nvalue = [396, 59]\nclass = 0", fillcolor="#e58139d9"] ;
5 -> 7 ;
8 [label="pclass <= 2.5\ngini = 0.3737\nsamples = 378\nvalue = [94, 284]\nclass = 1", fillcolor="#399de5ab"] ;
0 -> 8 [labeldistance=2.5, labelangle=-45, headlabel="False"] ;
9 [label="pclass <= 1.5\ngini = 0.1162\nsamples = 226\nvalue = [14, 212]\nclass = 1", fillcolor="#399de5ee"] ;
8 -> 9 ;
10 [label="gini = 0.0458\nsamples = 128\nvalue = [3, 125]\nclass = 1", fillcolor="#399de5f9"] ;
9 -> 10 ;
11 [label="gini = 0.1993\nsamples = 98\nvalue = [11, 87]\nclass = 1", fillcolor="#399de5df"] ;
9 -> 11 ;
12 [label="age <= 1.5\ngini = 0.4986\nsamples = 152\nvalue = [80, 72]\nclass = 0", fillcolor="#e5813919"] ;
8 -> 12 ;
13 [label="gini = 0.2449\nsamples = 7\nvalue = [1, 6]\nclass = 1", fillcolor="#399de5d4"] ;
12 -> 13 ;
14 [label="gini = 0.496\nsamples = 145\nvalue = [79, 66]\nclass = 0", fillcolor="#e581392a"] ;
12 -> 14 ;
{rank=same ; 0} ;
{rank=same ; 1; 8} ;
{rank=same ; 2; 5; 9; 12} ;
{rank=same ; 3; 4; 6; 7; 10; 11; 13; 14} ;
}